{
  "meta": {
    "player_ids": [
      "aditya"
    ],
    "n_runs": 80,
    "n_single": 432,
    "n_chord": 380,
    "caveat": "Single player (aditya), single guitar (acoustic-1). k-fold / GroupKFold(run_id) only; results are within-player/within-instrument and will not transfer to new players or guitars without recalibration.",
    "data_note": "Chord events were duplicated in source CSVs (events.csv 600 chord rows -> 380 unique ids; fused had a cross-join blowup). Deduplicated on event_id (sort + keep first). 99 chord ids had inconsistent chord_name across their duplicate rows -> label noise in E4."
  },
  "E2": {
    "n": 429,
    "n_classes": 6,
    "chance": 0.16666666666666666,
    "models": {
      "RandomForest": {
        "accuracy": 0.6876456876456877,
        "accuracy_std": 0.03464470028950246,
        "lift_over_chance": 4.125874125874127
      },
      "LDA": {
        "accuracy": 0.655011655011655,
        "accuracy_std": 0.028283318473106053,
        "lift_over_chance": 3.9300699300699304
      }
    },
    "best_model": "RandomForest",
    "best_accuracy": 0.6876456876456877,
    "confusion_matrix_counts": [
      [
        54,
        11,
        1,
        4,
        0,
        2
      ],
      [
        9,
        56,
        3,
        4,
        0,
        0
      ],
      [
        2,
        8,
        47,
        10,
        3,
        2
      ],
      [
        1,
        3,
        21,
        34,
        8,
        3
      ],
      [
        0,
        1,
        3,
        8,
        55,
        4
      ],
      [
        2,
        4,
        3,
        3,
        11,
        49
      ]
    ],
    "confusion_labels": [
      1,
      2,
      3,
      4,
      5,
      6
    ],
    "adjacent_error_fraction": 0.6940298507462687,
    "most_confused_pair": {
      "true": 4,
      "pred": 3,
      "count": 21
    },
    "confusion_png": "/Users/aritro/Downloads/tactus/.claude/worktrees/analysis-pipeline/data/analysis/exp/e2_confusion.png",
    "dropped_for_nan": 3
  },
  "E4": {
    "n": 340,
    "n_chords": 9,
    "chords": [
      "A",
      "Am",
      "C",
      "D",
      "Dm",
      "E",
      "Em",
      "F",
      "G"
    ],
    "chance": 0.1111111111111111,
    "nearest_mu_chordID_accuracy": 0.5529411764705883,
    "nearest_mu_lift": 4.976470588235295,
    "chordID_accuracy_stratified": 0.5529411764705883,
    "chordID_accuracy_groupkfold_runid": 0.05,
    "chordID_accuracy_within_mixed_stream": 0.03333333333333333,
    "groupkfold_mean_unseen_test_chord_frac": 0.04444444444444444,
    "n_single_chord_runs": 7,
    "n_mixed_stream_runs": 1,
    "chordID_verdict": "Chord-ID from audio is unreliable on this collection. StratifiedKFold nearest-mu_c reaches ~5x chance, but that score is inflated by per-take/per-run acoustic leakage: 7 of 8 chord runs are single-chord takes, so the model can learn 'which run'. Within the one mixed strum stream (no cross-take leakage) it collapses to ~chance. GroupKFold(run_id) is degenerate here because run_id is nearly collinear with the chord label. The useful, real primitive from E4 is the off-detection AUC, not chord identity.",
    "offdetection_auc": 0.89878892733564,
    "pca_evr2": 0.37271832025746376,
    "per_chord_counts": {
      "A": 47,
      "Am": 15,
      "C": 42,
      "D": 42,
      "Dm": 44,
      "E": 45,
      "Em": 19,
      "F": 43,
      "G": 43
    },
    "mu_c_standardized": {
      "A": [
        0.640701492777724,
        0.4839652284424728,
        0.5144037756327451,
        0.6717300112000453,
        -0.3949286515419029,
        0.8668142969708296,
        -0.20971626415836017,
        0.015672424815009984,
        -0.005547112182379974,
        0.13003265421945281,
        -0.12867349533598513,
        0.09379798973961961,
        0.9091156344386627,
        0.02640813665719931,
        -0.6167125994624955,
        0.2816183267612273,
        -0.48039665739863846,
        -0.2492832351066437,
        0.2924730385554225,
        -0.2372820138698825,
        -0.1346312606805016,
        -0.9743775671384572,
        -0.4299720716344127,
        -0.15455024456840188,
        0.28833678038905014,
        0.4432924955183764,
        -0.09218953281423449,
        -0.26043247404768566
      ],
      "Am": [
        0.19943322159179225,
        0.2365106504826984,
        0.25855020731211564,
        0.23089754742814142,
        0.12311000966506759,
        -0.2576467240001665,
        -0.2761170508282812,
        0.5200272924844719,
        -0.5364335080049567,
        0.17572978297957084,
        -0.1421071698354868,
        -0.2621614684761337,
        -0.1894372187663968,
        -0.25327991749037027,
        0.582697040764956,
        -0.5377282680606724,
        -0.12246435840864697,
        -0.036923524832513814,
        -0.29275333113973595,
        0.3413448194225098,
        0.43942142192858674,
        0.18491548910347563,
        -0.21693529630883926,
        0.3313783352149438,
        0.3250593109547287,
        0.5533953846735705,
        0.22206817245621988,
        0.2912261451749584
      ],
      "C": [
        -0.008147959550926814,
        0.08366786845791392,
        0.0880542831510083,
        -0.056223044267385044,
        0.1080701604360492,
        -0.15680954549411813,
        0.03510873621520477,
        0.2575423310419661,
        -0.3264598631962429,
        0.07818958754750632,
        0.04114829964725402,
        0.07188845036357124,
        -0.26629975737102424,
        0.4222847848123849,
        0.24453160427040344,
        0.07284728252453185,
        -0.18774821945423006,
        -0.03343399327098257,
        -0.07678163297007545,
        -0.05926815869900424,
        1.109181567747724,
        0.040790818457994114,
        0.8789198974185057,
        -0.046633042362053775,
        0.4271140273495187,
        -0.37428058830831706,
        0.1401140023191146,
        0.5201605575152324
      ],
      "D": [
        -0.17169261283034892,
        -0.31754884985442144,
        -0.11672073463005408,
        -0.18344871876090948,
        0.5206362201904604,
        0.6076431143023445,
        -0.28323827741643587,
        0.11895739434230099,
        -0.07553304532813199,
        0.020491141034455287,
        -0.2789834293024635,
        0.2570826759651103,
        0.45742614439301943,
        0.3773391903246613,
        -0.6126425205944805,
        0.05741631088818901,
        0.12377581066365317,
        -0.2948580985629916,
        0.15189116718615817,
        0.2557435929911971,
        0.16681841187345584,
        0.7286090925967035,
        0.027598805800511123,
        -0.2628197454620877,
        -0.39881885106710996,
        -0.1413829533939722,
        -0.960110736336571,
        -1.5730010082310262
      ],
      "Dm": [
        -0.09938136723779026,
        -0.036556550059073455,
        -0.07432861880774827,
        -0.17157877846760797,
        -0.42908440365638784,
        0.3387907874919549,
        -0.259072723594972,
        -0.34454470727356606,
        0.38602369943315207,
        -0.23443472410674743,
        0.2181435124660469,
        0.16144486801679708,
        0.18003654531827348,
        -0.16287828383151345,
        -0.45430362198913615,
        -0.12016302459744317,
        -0.14416333500044295,
        0.40566462526850633,
        0.5893579698436872,
        0.44223405859364656,
        -0.5903655343742962,
        -0.209284380964443,
        -0.2379109168491308,
        -0.7518905392348983,
        -1.0918829513940187,
        -0.19920201647855587,
        -0.6618803344678762,
        -0.31870126538234983
      ],
      "E": [
        -0.26702807262454037,
        -0.3093728151458008,
        -0.28696053610884953,
        -0.19736026806504475,
        -0.17531031439979755,
        -0.7333314571676416,
        0.4416358293263961,
        -0.15003931722253772,
        0.046164997570638695,
        -0.11723041412624961,
        -0.08289636329881733,
        -0.6764618122323736,
        -0.4912282491409687,
        -0.6077479928824364,
        1.2172952681126747,
        0.05664112517360625,
        0.4877642231885001,
        -0.34739298999990426,
        -0.8287994001519122,
        -0.15310780832371115,
        -0.3658897242245862,
        0.3470529398356694,
        -0.025767492061863826,
        0.7342066271101786,
        0.34691816334336834,
        0.45728269349058903,
        0.955797564438345,
        0.5299222721982908
      ],
      "Em": [
        0.23812976287876886,
        0.36013286419664287,
        0.08576341040253685,
        0.20224419531806853,
        0.05760099874474576,
        -0.043061429478508204,
        -0.6283672997968099,
        0.6224640476567851,
        -0.6182447554338162,
        0.0818349120023541,
        0.232770794671201,
        -0.31783741634948537,
        -0.3430660336587071,
        -0.2447158905271223,
        0.44088302186087824,
        -0.7768088596466134,
        -0.39515006486715015,
        -0.06963874720856085,
        -0.17306032355144807,
        0.32740088718448,
        0.2337204293077419,
        0.38068144397285114,
        0.1686157990841653,
        0.5871088747847995,
        0.4102606489657428,
        0.46398372649422576,
        0.07766791105571373,
        0.5013834483040952
      ],
      "F": [
        -0.014492338301646295,
        0.01848887910578034,
        -0.1263162862460602,
        -0.1282598226286779,
        -0.20201232315522022,
        -0.03547607291062032,
        0.27651188761172163,
        -0.2436060629527751,
        0.4028423214200765,
        -0.08892759787040354,
        -0.512916612739464,
        -0.054049582592559264,
        -0.3796824343329849,
        0.34492008336907315,
        -0.05445652070356155,
        0.20056984599264324,
        0.2905829941896692,
        0.10576866871453651,
        -0.7150005204658381,
        -0.840069085040609,
        -0.5399903006255112,
        -0.6638148139994234,
        -0.708539083358702,
        -0.25224858954249985,
        -0.1525479973820517,
        -0.6433169874438877,
        0.5512462196911838,
        0.6213026504378425
      ],
      "G": [
        -0.3038003712924471,
        -0.19949547936064602,
        -0.15966187764951745,
        -0.15965927239870287,
        0.5737236585947987,
        -0.8226470178936268,
        0.37196316175918825,
        -0.08814003774814566,
        0.012857719002597696,
        0.11552204147233712,
        0.6961192633215586,
        0.4048227796142614,
        -0.2531609827644564,
        -0.15564763053133368,
        -0.11903208543669432,
        -0.041116764072667046,
        0.15137275864945873,
        0.47946412232432173,
        0.7648338971892598,
        0.35148885388284457,
        0.17126429422303688,
        0.5955683044413829,
        0.5646518409819022,
        0.34943511141624367,
        0.26930298422085897,
        -0.01031865426265748,
        -0.08431825943626949,
        0.14012295288314966
      ]
    },
    "scatter_png": "/Users/aritro/Downloads/tactus/.claude/worktrees/analysis-pipeline/data/analysis/exp/e4_chord_scatter.png",
    "roc_png": "/Users/aritro/Downloads/tactus/.claude/worktrees/analysis-pipeline/data/analysis/exp/e4_offdetect_roc.png",
    "dropped_for_nan": 40
  },
  "E5": {
    "n": 432,
    "n_muted": 144,
    "n_other": 288,
    "mean_harm_muted": 0.14916613712880966,
    "mean_harm_clean": 0.5511337729646281,
    "mean_harm_buzz": 0.4152025681428818,
    "dprime": 1.3938407677775537,
    "auc": 0.820240162037037,
    "bimodality": {
      "likely_bimodal": true,
      "low_mode_frac": 0.4961341106730782,
      "bic1": -97.44923223685197,
      "bic2": -205.87266039525497,
      "mode_means": [
        0.0345167525766086,
        0.26205623675433876
      ],
      "mode_weights": [
        0.4961341106730782,
        0.5038658893269217
      ],
      "separation": 2.3368133783330483
    },
    "hist_png": "/Users/aritro/Downloads/tactus/.claude/worktrees/analysis-pipeline/data/analysis/exp/e5_harmonic_hist.png",
    "roc_png": "/Users/aritro/Downloads/tactus/.claude/worktrees/analysis-pipeline/data/analysis/exp/e5_harmonic_roc.png",
    "unreadable": 0
  }
}